~o
<STREAMINFO> 1 39
<VECSIZE> 39<NULLD><MFCC_D_A_0><DIAGC>
~h "jeden"
<BEGINHMM>
<NUMSTATES> 5
<STATE> 2
<MEAN> 39
 -8.638889e-002 -1.365616e+001 1.669010e+001 -3.958369e+000 2.676628e+000 -8.724324e+000 5.409346e+000 -9.797149e+000 2.297275e+000 -4.886314e+000 1.105563e+000 2.975532e+000 6.190044e+001 -2.807040e-002 -1.531508e-002 1.310226e-001 1.417213e-003 -2.371345e-002 3.886223e-002 -6.228909e-002 -8.308486e-003 7.035650e-002 -5.286173e-002 -2.527280e-002 5.924186e-002 3.585004e-003 7.469244e-004 2.051655e-002 -2.929464e-002 5.537300e-003 -2.644804e-003 2.430879e-002 -1.050279e-002 1.900269e-002 -2.223574e-002 1.607009e-002 -8.220041e-004 -1.088212e-003 -4.160025e-002
<VARIANCE> 39
 1.414109e+002 7.789651e+001 6.197569e+001 6.992234e+001 4.177879e+001 7.751051e+001 7.294250e+001 5.857701e+001 5.932423e+001 3.918953e+001 4.556395e+001 2.385864e+001 5.976743e+001 4.754480e+000 3.241677e+000 3.421673e+000 2.671019e+000 2.885232e+000 3.508314e+000 3.456802e+000 3.164435e+000 3.567269e+000 2.605410e+000 2.406822e+000 1.519150e+000 2.927211e+000 5.413395e-001 4.753927e-001 4.577427e-001 4.318496e-001 4.531186e-001 5.021955e-001 5.172566e-001 5.079434e-001 5.961374e-001 4.583212e-001 3.928945e-001 2.688915e-001 3.375158e-001
<GCONST> 1.284624e+002
<STATE> 3
<MEAN> 39
 -8.638889e-002 -1.365616e+001 1.669010e+001 -3.958369e+000 2.676628e+000 -8.724324e+000 5.409346e+000 -9.797149e+000 2.297275e+000 -4.886314e+000 1.105563e+000 2.975532e+000 6.190044e+001 -2.807040e-002 -1.531508e-002 1.310226e-001 1.417213e-003 -2.371345e-002 3.886223e-002 -6.228909e-002 -8.308486e-003 7.035650e-002 -5.286173e-002 -2.527280e-002 5.924186e-002 3.585004e-003 7.469244e-004 2.051655e-002 -2.929464e-002 5.537300e-003 -2.644804e-003 2.430879e-002 -1.050279e-002 1.900269e-002 -2.223574e-002 1.607009e-002 -8.220041e-004 -1.088212e-003 -4.160025e-002
<VARIANCE> 39
 1.414109e+002 7.789651e+001 6.197569e+001 6.992234e+001 4.177879e+001 7.751051e+001 7.294250e+001 5.857701e+001 5.932423e+001 3.918953e+001 4.556395e+001 2.385864e+001 5.976743e+001 4.754480e+000 3.241677e+000 3.421673e+000 2.671019e+000 2.885232e+000 3.508314e+000 3.456802e+000 3.164435e+000 3.567269e+000 2.605410e+000 2.406822e+000 1.519150e+000 2.927211e+000 5.413395e-001 4.753927e-001 4.577427e-001 4.318496e-001 4.531186e-001 5.021955e-001 5.172566e-001 5.079434e-001 5.961374e-001 4.583212e-001 3.928945e-001 2.688915e-001 3.375158e-001
<GCONST> 1.284624e+002
<STATE> 4
<MEAN> 39
 -8.638889e-002 -1.365616e+001 1.669010e+001 -3.958369e+000 2.676628e+000 -8.724324e+000 5.409346e+000 -9.797149e+000 2.297275e+000 -4.886314e+000 1.105563e+000 2.975532e+000 6.190044e+001 -2.807040e-002 -1.531508e-002 1.310226e-001 1.417213e-003 -2.371345e-002 3.886223e-002 -6.228909e-002 -8.308486e-003 7.035650e-002 -5.286173e-002 -2.527280e-002 5.924186e-002 3.585004e-003 7.469244e-004 2.051655e-002 -2.929464e-002 5.537300e-003 -2.644804e-003 2.430879e-002 -1.050279e-002 1.900269e-002 -2.223574e-002 1.607009e-002 -8.220041e-004 -1.088212e-003 -4.160025e-002
<VARIANCE> 39
 1.414109e+002 7.789651e+001 6.197569e+001 6.992234e+001 4.177879e+001 7.751051e+001 7.294250e+001 5.857701e+001 5.932423e+001 3.918953e+001 4.556395e+001 2.385864e+001 5.976743e+001 4.754480e+000 3.241677e+000 3.421673e+000 2.671019e+000 2.885232e+000 3.508314e+000 3.456802e+000 3.164435e+000 3.567269e+000 2.605410e+000 2.406822e+000 1.519150e+000 2.927211e+000 5.413395e-001 4.753927e-001 4.577427e-001 4.318496e-001 4.531186e-001 5.021955e-001 5.172566e-001 5.079434e-001 5.961374e-001 4.583212e-001 3.928945e-001 2.688915e-001 3.375158e-001
<GCONST> 1.284624e+002
<TRANSP> 5
 0.000000e+000 1.000000e+000 0.000000e+000 0.000000e+000 0.000000e+000
 0.000000e+000 6.000000e-001 4.000000e-001 0.000000e+000 0.000000e+000
 0.000000e+000 0.000000e+000 6.000000e-001 4.000000e-001 0.000000e+000
 0.000000e+000 0.000000e+000 0.000000e+000 6.000000e-001 4.000000e-001
 0.000000e+000 0.000000e+000 0.000000e+000 0.000000e+000 0.000000e+000
<ENDHMM>

~o
<STREAMINFO> 1 39
<VECSIZE> 39<NULLD><MFCC_D_A_0><DIAGC>
~h "dwa"
<BEGINHMM>
<NUMSTATES> 5
<STATE> 2
<MEAN> 39
 -8.638889e-002 -1.365616e+001 1.669010e+001 -3.958369e+000 2.676628e+000 -8.724324e+000 5.409346e+000 -9.797149e+000 2.297275e+000 -4.886314e+000 1.105563e+000 2.975532e+000 6.190044e+001 -2.807040e-002 -1.531508e-002 1.310226e-001 1.417213e-003 -2.371345e-002 3.886223e-002 -6.228909e-002 -8.308486e-003 7.035650e-002 -5.286173e-002 -2.527280e-002 5.924186e-002 3.585004e-003 7.469244e-004 2.051655e-002 -2.929464e-002 5.537300e-003 -2.644804e-003 2.430879e-002 -1.050279e-002 1.900269e-002 -2.223574e-002 1.607009e-002 -8.220041e-004 -1.088212e-003 -4.160025e-002
<VARIANCE> 39
 1.414109e+002 7.789651e+001 6.197569e+001 6.992234e+001 4.177879e+001 7.751051e+001 7.294250e+001 5.857701e+001 5.932423e+001 3.918953e+001 4.556395e+001 2.385864e+001 5.976743e+001 4.754480e+000 3.241677e+000 3.421673e+000 2.671019e+000 2.885232e+000 3.508314e+000 3.456802e+000 3.164435e+000 3.567269e+000 2.605410e+000 2.406822e+000 1.519150e+000 2.927211e+000 5.413395e-001 4.753927e-001 4.577427e-001 4.318496e-001 4.531186e-001 5.021955e-001 5.172566e-001 5.079434e-001 5.961374e-001 4.583212e-001 3.928945e-001 2.688915e-001 3.375158e-001
<GCONST> 1.284624e+002
<STATE> 3
<MEAN> 39
 -8.638889e-002 -1.365616e+001 1.669010e+001 -3.958369e+000 2.676628e+000 -8.724324e+000 5.409346e+000 -9.797149e+000 2.297275e+000 -4.886314e+000 1.105563e+000 2.975532e+000 6.190044e+001 -2.807040e-002 -1.531508e-002 1.310226e-001 1.417213e-003 -2.371345e-002 3.886223e-002 -6.228909e-002 -8.308486e-003 7.035650e-002 -5.286173e-002 -2.527280e-002 5.924186e-002 3.585004e-003 7.469244e-004 2.051655e-002 -2.929464e-002 5.537300e-003 -2.644804e-003 2.430879e-002 -1.050279e-002 1.900269e-002 -2.223574e-002 1.607009e-002 -8.220041e-004 -1.088212e-003 -4.160025e-002
<VARIANCE> 39
 1.414109e+002 7.789651e+001 6.197569e+001 6.992234e+001 4.177879e+001 7.751051e+001 7.294250e+001 5.857701e+001 5.932423e+001 3.918953e+001 4.556395e+001 2.385864e+001 5.976743e+001 4.754480e+000 3.241677e+000 3.421673e+000 2.671019e+000 2.885232e+000 3.508314e+000 3.456802e+000 3.164435e+000 3.567269e+000 2.605410e+000 2.406822e+000 1.519150e+000 2.927211e+000 5.413395e-001 4.753927e-001 4.577427e-001 4.318496e-001 4.531186e-001 5.021955e-001 5.172566e-001 5.079434e-001 5.961374e-001 4.583212e-001 3.928945e-001 2.688915e-001 3.375158e-001
<GCONST> 1.284624e+002
<STATE> 4
<MEAN> 39
 -8.638889e-002 -1.365616e+001 1.669010e+001 -3.958369e+000 2.676628e+000 -8.724324e+000 5.409346e+000 -9.797149e+000 2.297275e+000 -4.886314e+000 1.105563e+000 2.975532e+000 6.190044e+001 -2.807040e-002 -1.531508e-002 1.310226e-001 1.417213e-003 -2.371345e-002 3.886223e-002 -6.228909e-002 -8.308486e-003 7.035650e-002 -5.286173e-002 -2.527280e-002 5.924186e-002 3.585004e-003 7.469244e-004 2.051655e-002 -2.929464e-002 5.537300e-003 -2.644804e-003 2.430879e-002 -1.050279e-002 1.900269e-002 -2.223574e-002 1.607009e-002 -8.220041e-004 -1.088212e-003 -4.160025e-002
<VARIANCE> 39
 1.414109e+002 7.789651e+001 6.197569e+001 6.992234e+001 4.177879e+001 7.751051e+001 7.294250e+001 5.857701e+001 5.932423e+001 3.918953e+001 4.556395e+001 2.385864e+001 5.976743e+001 4.754480e+000 3.241677e+000 3.421673e+000 2.671019e+000 2.885232e+000 3.508314e+000 3.456802e+000 3.164435e+000 3.567269e+000 2.605410e+000 2.406822e+000 1.519150e+000 2.927211e+000 5.413395e-001 4.753927e-001 4.577427e-001 4.318496e-001 4.531186e-001 5.021955e-001 5.172566e-001 5.079434e-001 5.961374e-001 4.583212e-001 3.928945e-001 2.688915e-001 3.375158e-001
<GCONST> 1.284624e+002
<TRANSP> 5
 0.000000e+000 1.000000e+000 0.000000e+000 0.000000e+000 0.000000e+000
 0.000000e+000 6.000000e-001 4.000000e-001 0.000000e+000 0.000000e+000
 0.000000e+000 0.000000e+000 6.000000e-001 4.000000e-001 0.000000e+000
 0.000000e+000 0.000000e+000 0.000000e+000 6.000000e-001 4.000000e-001
 0.000000e+000 0.000000e+000 0.000000e+000 0.000000e+000 0.000000e+000
<ENDHMM>

~o
<STREAMINFO> 1 39
<VECSIZE> 39<NULLD><MFCC_D_A_0><DIAGC>
~h "trzy"
<BEGINHMM>
<NUMSTATES> 5
<STATE> 2
<MEAN> 39
 -8.638889e-002 -1.365616e+001 1.669010e+001 -3.958369e+000 2.676628e+000 -8.724324e+000 5.409346e+000 -9.797149e+000 2.297275e+000 -4.886314e+000 1.105563e+000 2.975532e+000 6.190044e+001 -2.807040e-002 -1.531508e-002 1.310226e-001 1.417213e-003 -2.371345e-002 3.886223e-002 -6.228909e-002 -8.308486e-003 7.035650e-002 -5.286173e-002 -2.527280e-002 5.924186e-002 3.585004e-003 7.469244e-004 2.051655e-002 -2.929464e-002 5.537300e-003 -2.644804e-003 2.430879e-002 -1.050279e-002 1.900269e-002 -2.223574e-002 1.607009e-002 -8.220041e-004 -1.088212e-003 -4.160025e-002
<VARIANCE> 39
 1.414109e+002 7.789651e+001 6.197569e+001 6.992234e+001 4.177879e+001 7.751051e+001 7.294250e+001 5.857701e+001 5.932423e+001 3.918953e+001 4.556395e+001 2.385864e+001 5.976743e+001 4.754480e+000 3.241677e+000 3.421673e+000 2.671019e+000 2.885232e+000 3.508314e+000 3.456802e+000 3.164435e+000 3.567269e+000 2.605410e+000 2.406822e+000 1.519150e+000 2.927211e+000 5.413395e-001 4.753927e-001 4.577427e-001 4.318496e-001 4.531186e-001 5.021955e-001 5.172566e-001 5.079434e-001 5.961374e-001 4.583212e-001 3.928945e-001 2.688915e-001 3.375158e-001
<GCONST> 1.284624e+002
<STATE> 3
<MEAN> 39
 -8.638889e-002 -1.365616e+001 1.669010e+001 -3.958369e+000 2.676628e+000 -8.724324e+000 5.409346e+000 -9.797149e+000 2.297275e+000 -4.886314e+000 1.105563e+000 2.975532e+000 6.190044e+001 -2.807040e-002 -1.531508e-002 1.310226e-001 1.417213e-003 -2.371345e-002 3.886223e-002 -6.228909e-002 -8.308486e-003 7.035650e-002 -5.286173e-002 -2.527280e-002 5.924186e-002 3.585004e-003 7.469244e-004 2.051655e-002 -2.929464e-002 5.537300e-003 -2.644804e-003 2.430879e-002 -1.050279e-002 1.900269e-002 -2.223574e-002 1.607009e-002 -8.220041e-004 -1.088212e-003 -4.160025e-002
<VARIANCE> 39
 1.414109e+002 7.789651e+001 6.197569e+001 6.992234e+001 4.177879e+001 7.751051e+001 7.294250e+001 5.857701e+001 5.932423e+001 3.918953e+001 4.556395e+001 2.385864e+001 5.976743e+001 4.754480e+000 3.241677e+000 3.421673e+000 2.671019e+000 2.885232e+000 3.508314e+000 3.456802e+000 3.164435e+000 3.567269e+000 2.605410e+000 2.406822e+000 1.519150e+000 2.927211e+000 5.413395e-001 4.753927e-001 4.577427e-001 4.318496e-001 4.531186e-001 5.021955e-001 5.172566e-001 5.079434e-001 5.961374e-001 4.583212e-001 3.928945e-001 2.688915e-001 3.375158e-001
<GCONST> 1.284624e+002
<STATE> 4
<MEAN> 39
 -8.638889e-002 -1.365616e+001 1.669010e+001 -3.958369e+000 2.676628e+000 -8.724324e+000 5.409346e+000 -9.797149e+000 2.297275e+000 -4.886314e+000 1.105563e+000 2.975532e+000 6.190044e+001 -2.807040e-002 -1.531508e-002 1.310226e-001 1.417213e-003 -2.371345e-002 3.886223e-002 -6.228909e-002 -8.308486e-003 7.035650e-002 -5.286173e-002 -2.527280e-002 5.924186e-002 3.585004e-003 7.469244e-004 2.051655e-002 -2.929464e-002 5.537300e-003 -2.644804e-003 2.430879e-002 -1.050279e-002 1.900269e-002 -2.223574e-002 1.607009e-002 -8.220041e-004 -1.088212e-003 -4.160025e-002
<VARIANCE> 39
 1.414109e+002 7.789651e+001 6.197569e+001 6.992234e+001 4.177879e+001 7.751051e+001 7.294250e+001 5.857701e+001 5.932423e+001 3.918953e+001 4.556395e+001 2.385864e+001 5.976743e+001 4.754480e+000 3.241677e+000 3.421673e+000 2.671019e+000 2.885232e+000 3.508314e+000 3.456802e+000 3.164435e+000 3.567269e+000 2.605410e+000 2.406822e+000 1.519150e+000 2.927211e+000 5.413395e-001 4.753927e-001 4.577427e-001 4.318496e-001 4.531186e-001 5.021955e-001 5.172566e-001 5.079434e-001 5.961374e-001 4.583212e-001 3.928945e-001 2.688915e-001 3.375158e-001
<GCONST> 1.284624e+002
<TRANSP> 5
 0.000000e+000 1.000000e+000 0.000000e+000 0.000000e+000 0.000000e+000
 0.000000e+000 6.000000e-001 4.000000e-001 0.000000e+000 0.000000e+000
 0.000000e+000 0.000000e+000 6.000000e-001 4.000000e-001 0.000000e+000
 0.000000e+000 0.000000e+000 0.000000e+000 6.000000e-001 4.000000e-001
 0.000000e+000 0.000000e+000 0.000000e+000 0.000000e+000 0.000000e+000
<ENDHMM>

~o
<STREAMINFO> 1 39
<VECSIZE> 39<NULLD><MFCC_D_A_0><DIAGC>
~h "cztery"
<BEGINHMM>
<NUMSTATES> 5
<STATE> 2
<MEAN> 39
 -8.638889e-002 -1.365616e+001 1.669010e+001 -3.958369e+000 2.676628e+000 -8.724324e+000 5.409346e+000 -9.797149e+000 2.297275e+000 -4.886314e+000 1.105563e+000 2.975532e+000 6.190044e+001 -2.807040e-002 -1.531508e-002 1.310226e-001 1.417213e-003 -2.371345e-002 3.886223e-002 -6.228909e-002 -8.308486e-003 7.035650e-002 -5.286173e-002 -2.527280e-002 5.924186e-002 3.585004e-003 7.469244e-004 2.051655e-002 -2.929464e-002 5.537300e-003 -2.644804e-003 2.430879e-002 -1.050279e-002 1.900269e-002 -2.223574e-002 1.607009e-002 -8.220041e-004 -1.088212e-003 -4.160025e-002
<VARIANCE> 39
 1.414109e+002 7.789651e+001 6.197569e+001 6.992234e+001 4.177879e+001 7.751051e+001 7.294250e+001 5.857701e+001 5.932423e+001 3.918953e+001 4.556395e+001 2.385864e+001 5.976743e+001 4.754480e+000 3.241677e+000 3.421673e+000 2.671019e+000 2.885232e+000 3.508314e+000 3.456802e+000 3.164435e+000 3.567269e+000 2.605410e+000 2.406822e+000 1.519150e+000 2.927211e+000 5.413395e-001 4.753927e-001 4.577427e-001 4.318496e-001 4.531186e-001 5.021955e-001 5.172566e-001 5.079434e-001 5.961374e-001 4.583212e-001 3.928945e-001 2.688915e-001 3.375158e-001
<GCONST> 1.284624e+002
<STATE> 3
<MEAN> 39
 -8.638889e-002 -1.365616e+001 1.669010e+001 -3.958369e+000 2.676628e+000 -8.724324e+000 5.409346e+000 -9.797149e+000 2.297275e+000 -4.886314e+000 1.105563e+000 2.975532e+000 6.190044e+001 -2.807040e-002 -1.531508e-002 1.310226e-001 1.417213e-003 -2.371345e-002 3.886223e-002 -6.228909e-002 -8.308486e-003 7.035650e-002 -5.286173e-002 -2.527280e-002 5.924186e-002 3.585004e-003 7.469244e-004 2.051655e-002 -2.929464e-002 5.537300e-003 -2.644804e-003 2.430879e-002 -1.050279e-002 1.900269e-002 -2.223574e-002 1.607009e-002 -8.220041e-004 -1.088212e-003 -4.160025e-002
<VARIANCE> 39
 1.414109e+002 7.789651e+001 6.197569e+001 6.992234e+001 4.177879e+001 7.751051e+001 7.294250e+001 5.857701e+001 5.932423e+001 3.918953e+001 4.556395e+001 2.385864e+001 5.976743e+001 4.754480e+000 3.241677e+000 3.421673e+000 2.671019e+000 2.885232e+000 3.508314e+000 3.456802e+000 3.164435e+000 3.567269e+000 2.605410e+000 2.406822e+000 1.519150e+000 2.927211e+000 5.413395e-001 4.753927e-001 4.577427e-001 4.318496e-001 4.531186e-001 5.021955e-001 5.172566e-001 5.079434e-001 5.961374e-001 4.583212e-001 3.928945e-001 2.688915e-001 3.375158e-001
<GCONST> 1.284624e+002
<STATE> 4
<MEAN> 39
 -8.638889e-002 -1.365616e+001 1.669010e+001 -3.958369e+000 2.676628e+000 -8.724324e+000 5.409346e+000 -9.797149e+000 2.297275e+000 -4.886314e+000 1.105563e+000 2.975532e+000 6.190044e+001 -2.807040e-002 -1.531508e-002 1.310226e-001 1.417213e-003 -2.371345e-002 3.886223e-002 -6.228909e-002 -8.308486e-003 7.035650e-002 -5.286173e-002 -2.527280e-002 5.924186e-002 3.585004e-003 7.469244e-004 2.051655e-002 -2.929464e-002 5.537300e-003 -2.644804e-003 2.430879e-002 -1.050279e-002 1.900269e-002 -2.223574e-002 1.607009e-002 -8.220041e-004 -1.088212e-003 -4.160025e-002
<VARIANCE> 39
 1.414109e+002 7.789651e+001 6.197569e+001 6.992234e+001 4.177879e+001 7.751051e+001 7.294250e+001 5.857701e+001 5.932423e+001 3.918953e+001 4.556395e+001 2.385864e+001 5.976743e+001 4.754480e+000 3.241677e+000 3.421673e+000 2.671019e+000 2.885232e+000 3.508314e+000 3.456802e+000 3.164435e+000 3.567269e+000 2.605410e+000 2.406822e+000 1.519150e+000 2.927211e+000 5.413395e-001 4.753927e-001 4.577427e-001 4.318496e-001 4.531186e-001 5.021955e-001 5.172566e-001 5.079434e-001 5.961374e-001 4.583212e-001 3.928945e-001 2.688915e-001 3.375158e-001
<GCONST> 1.284624e+002
<TRANSP> 5
 0.000000e+000 1.000000e+000 0.000000e+000 0.000000e+000 0.000000e+000
 0.000000e+000 6.000000e-001 4.000000e-001 0.000000e+000 0.000000e+000
 0.000000e+000 0.000000e+000 6.000000e-001 4.000000e-001 0.000000e+000
 0.000000e+000 0.000000e+000 0.000000e+000 6.000000e-001 4.000000e-001
 0.000000e+000 0.000000e+000 0.000000e+000 0.000000e+000 0.000000e+000
<ENDHMM>

~o
<STREAMINFO> 1 39
<VECSIZE> 39<NULLD><MFCC_D_A_0><DIAGC>
~h "piec"
<BEGINHMM>
<NUMSTATES> 5
<STATE> 2
<MEAN> 39
 -8.638889e-002 -1.365616e+001 1.669010e+001 -3.958369e+000 2.676628e+000 -8.724324e+000 5.409346e+000 -9.797149e+000 2.297275e+000 -4.886314e+000 1.105563e+000 2.975532e+000 6.190044e+001 -2.807040e-002 -1.531508e-002 1.310226e-001 1.417213e-003 -2.371345e-002 3.886223e-002 -6.228909e-002 -8.308486e-003 7.035650e-002 -5.286173e-002 -2.527280e-002 5.924186e-002 3.585004e-003 7.469244e-004 2.051655e-002 -2.929464e-002 5.537300e-003 -2.644804e-003 2.430879e-002 -1.050279e-002 1.900269e-002 -2.223574e-002 1.607009e-002 -8.220041e-004 -1.088212e-003 -4.160025e-002
<VARIANCE> 39
 1.414109e+002 7.789651e+001 6.197569e+001 6.992234e+001 4.177879e+001 7.751051e+001 7.294250e+001 5.857701e+001 5.932423e+001 3.918953e+001 4.556395e+001 2.385864e+001 5.976743e+001 4.754480e+000 3.241677e+000 3.421673e+000 2.671019e+000 2.885232e+000 3.508314e+000 3.456802e+000 3.164435e+000 3.567269e+000 2.605410e+000 2.406822e+000 1.519150e+000 2.927211e+000 5.413395e-001 4.753927e-001 4.577427e-001 4.318496e-001 4.531186e-001 5.021955e-001 5.172566e-001 5.079434e-001 5.961374e-001 4.583212e-001 3.928945e-001 2.688915e-001 3.375158e-001
<GCONST> 1.284624e+002
<STATE> 3
<MEAN> 39
 -8.638889e-002 -1.365616e+001 1.669010e+001 -3.958369e+000 2.676628e+000 -8.724324e+000 5.409346e+000 -9.797149e+000 2.297275e+000 -4.886314e+000 1.105563e+000 2.975532e+000 6.190044e+001 -2.807040e-002 -1.531508e-002 1.310226e-001 1.417213e-003 -2.371345e-002 3.886223e-002 -6.228909e-002 -8.308486e-003 7.035650e-002 -5.286173e-002 -2.527280e-002 5.924186e-002 3.585004e-003 7.469244e-004 2.051655e-002 -2.929464e-002 5.537300e-003 -2.644804e-003 2.430879e-002 -1.050279e-002 1.900269e-002 -2.223574e-002 1.607009e-002 -8.220041e-004 -1.088212e-003 -4.160025e-002
<VARIANCE> 39
 1.414109e+002 7.789651e+001 6.197569e+001 6.992234e+001 4.177879e+001 7.751051e+001 7.294250e+001 5.857701e+001 5.932423e+001 3.918953e+001 4.556395e+001 2.385864e+001 5.976743e+001 4.754480e+000 3.241677e+000 3.421673e+000 2.671019e+000 2.885232e+000 3.508314e+000 3.456802e+000 3.164435e+000 3.567269e+000 2.605410e+000 2.406822e+000 1.519150e+000 2.927211e+000 5.413395e-001 4.753927e-001 4.577427e-001 4.318496e-001 4.531186e-001 5.021955e-001 5.172566e-001 5.079434e-001 5.961374e-001 4.583212e-001 3.928945e-001 2.688915e-001 3.375158e-001
<GCONST> 1.284624e+002
<STATE> 4
<MEAN> 39
 -8.638889e-002 -1.365616e+001 1.669010e+001 -3.958369e+000 2.676628e+000 -8.724324e+000 5.409346e+000 -9.797149e+000 2.297275e+000 -4.886314e+000 1.105563e+000 2.975532e+000 6.190044e+001 -2.807040e-002 -1.531508e-002 1.310226e-001 1.417213e-003 -2.371345e-002 3.886223e-002 -6.228909e-002 -8.308486e-003 7.035650e-002 -5.286173e-002 -2.527280e-002 5.924186e-002 3.585004e-003 7.469244e-004 2.051655e-002 -2.929464e-002 5.537300e-003 -2.644804e-003 2.430879e-002 -1.050279e-002 1.900269e-002 -2.223574e-002 1.607009e-002 -8.220041e-004 -1.088212e-003 -4.160025e-002
<VARIANCE> 39
 1.414109e+002 7.789651e+001 6.197569e+001 6.992234e+001 4.177879e+001 7.751051e+001 7.294250e+001 5.857701e+001 5.932423e+001 3.918953e+001 4.556395e+001 2.385864e+001 5.976743e+001 4.754480e+000 3.241677e+000 3.421673e+000 2.671019e+000 2.885232e+000 3.508314e+000 3.456802e+000 3.164435e+000 3.567269e+000 2.605410e+000 2.406822e+000 1.519150e+000 2.927211e+000 5.413395e-001 4.753927e-001 4.577427e-001 4.318496e-001 4.531186e-001 5.021955e-001 5.172566e-001 5.079434e-001 5.961374e-001 4.583212e-001 3.928945e-001 2.688915e-001 3.375158e-001
<GCONST> 1.284624e+002
<TRANSP> 5
 0.000000e+000 1.000000e+000 0.000000e+000 0.000000e+000 0.000000e+000
 0.000000e+000 6.000000e-001 4.000000e-001 0.000000e+000 0.000000e+000
 0.000000e+000 0.000000e+000 6.000000e-001 4.000000e-001 0.000000e+000
 0.000000e+000 0.000000e+000 0.000000e+000 6.000000e-001 4.000000e-001
 0.000000e+000 0.000000e+000 0.000000e+000 0.000000e+000 0.000000e+000
<ENDHMM>

~o
<STREAMINFO> 1 39
<VECSIZE> 39<NULLD><MFCC_D_A_0><DIAGC>
~h "szesc"
<BEGINHMM>
<NUMSTATES> 5
<STATE> 2
<MEAN> 39
 -8.638889e-002 -1.365616e+001 1.669010e+001 -3.958369e+000 2.676628e+000 -8.724324e+000 5.409346e+000 -9.797149e+000 2.297275e+000 -4.886314e+000 1.105563e+000 2.975532e+000 6.190044e+001 -2.807040e-002 -1.531508e-002 1.310226e-001 1.417213e-003 -2.371345e-002 3.886223e-002 -6.228909e-002 -8.308486e-003 7.035650e-002 -5.286173e-002 -2.527280e-002 5.924186e-002 3.585004e-003 7.469244e-004 2.051655e-002 -2.929464e-002 5.537300e-003 -2.644804e-003 2.430879e-002 -1.050279e-002 1.900269e-002 -2.223574e-002 1.607009e-002 -8.220041e-004 -1.088212e-003 -4.160025e-002
<VARIANCE> 39
 1.414109e+002 7.789651e+001 6.197569e+001 6.992234e+001 4.177879e+001 7.751051e+001 7.294250e+001 5.857701e+001 5.932423e+001 3.918953e+001 4.556395e+001 2.385864e+001 5.976743e+001 4.754480e+000 3.241677e+000 3.421673e+000 2.671019e+000 2.885232e+000 3.508314e+000 3.456802e+000 3.164435e+000 3.567269e+000 2.605410e+000 2.406822e+000 1.519150e+000 2.927211e+000 5.413395e-001 4.753927e-001 4.577427e-001 4.318496e-001 4.531186e-001 5.021955e-001 5.172566e-001 5.079434e-001 5.961374e-001 4.583212e-001 3.928945e-001 2.688915e-001 3.375158e-001
<GCONST> 1.284624e+002
<STATE> 3
<MEAN> 39
 -8.638889e-002 -1.365616e+001 1.669010e+001 -3.958369e+000 2.676628e+000 -8.724324e+000 5.409346e+000 -9.797149e+000 2.297275e+000 -4.886314e+000 1.105563e+000 2.975532e+000 6.190044e+001 -2.807040e-002 -1.531508e-002 1.310226e-001 1.417213e-003 -2.371345e-002 3.886223e-002 -6.228909e-002 -8.308486e-003 7.035650e-002 -5.286173e-002 -2.527280e-002 5.924186e-002 3.585004e-003 7.469244e-004 2.051655e-002 -2.929464e-002 5.537300e-003 -2.644804e-003 2.430879e-002 -1.050279e-002 1.900269e-002 -2.223574e-002 1.607009e-002 -8.220041e-004 -1.088212e-003 -4.160025e-002
<VARIANCE> 39
 1.414109e+002 7.789651e+001 6.197569e+001 6.992234e+001 4.177879e+001 7.751051e+001 7.294250e+001 5.857701e+001 5.932423e+001 3.918953e+001 4.556395e+001 2.385864e+001 5.976743e+001 4.754480e+000 3.241677e+000 3.421673e+000 2.671019e+000 2.885232e+000 3.508314e+000 3.456802e+000 3.164435e+000 3.567269e+000 2.605410e+000 2.406822e+000 1.519150e+000 2.927211e+000 5.413395e-001 4.753927e-001 4.577427e-001 4.318496e-001 4.531186e-001 5.021955e-001 5.172566e-001 5.079434e-001 5.961374e-001 4.583212e-001 3.928945e-001 2.688915e-001 3.375158e-001
<GCONST> 1.284624e+002
<STATE> 4
<MEAN> 39
 -8.638889e-002 -1.365616e+001 1.669010e+001 -3.958369e+000 2.676628e+000 -8.724324e+000 5.409346e+000 -9.797149e+000 2.297275e+000 -4.886314e+000 1.105563e+000 2.975532e+000 6.190044e+001 -2.807040e-002 -1.531508e-002 1.310226e-001 1.417213e-003 -2.371345e-002 3.886223e-002 -6.228909e-002 -8.308486e-003 7.035650e-002 -5.286173e-002 -2.527280e-002 5.924186e-002 3.585004e-003 7.469244e-004 2.051655e-002 -2.929464e-002 5.537300e-003 -2.644804e-003 2.430879e-002 -1.050279e-002 1.900269e-002 -2.223574e-002 1.607009e-002 -8.220041e-004 -1.088212e-003 -4.160025e-002
<VARIANCE> 39
 1.414109e+002 7.789651e+001 6.197569e+001 6.992234e+001 4.177879e+001 7.751051e+001 7.294250e+001 5.857701e+001 5.932423e+001 3.918953e+001 4.556395e+001 2.385864e+001 5.976743e+001 4.754480e+000 3.241677e+000 3.421673e+000 2.671019e+000 2.885232e+000 3.508314e+000 3.456802e+000 3.164435e+000 3.567269e+000 2.605410e+000 2.406822e+000 1.519150e+000 2.927211e+000 5.413395e-001 4.753927e-001 4.577427e-001 4.318496e-001 4.531186e-001 5.021955e-001 5.172566e-001 5.079434e-001 5.961374e-001 4.583212e-001 3.928945e-001 2.688915e-001 3.375158e-001
<GCONST> 1.284624e+002
<TRANSP> 5
 0.000000e+000 1.000000e+000 0.000000e+000 0.000000e+000 0.000000e+000
 0.000000e+000 6.000000e-001 4.000000e-001 0.000000e+000 0.000000e+000
 0.000000e+000 0.000000e+000 6.000000e-001 4.000000e-001 0.000000e+000
 0.000000e+000 0.000000e+000 0.000000e+000 6.000000e-001 4.000000e-001
 0.000000e+000 0.000000e+000 0.000000e+000 0.000000e+000 0.000000e+000
<ENDHMM>

~o
<STREAMINFO> 1 39
<VECSIZE> 39<NULLD><MFCC_D_A_0><DIAGC>
~h "siedem"
<BEGINHMM>
<NUMSTATES> 5
<STATE> 2
<MEAN> 39
 -8.638889e-002 -1.365616e+001 1.669010e+001 -3.958369e+000 2.676628e+000 -8.724324e+000 5.409346e+000 -9.797149e+000 2.297275e+000 -4.886314e+000 1.105563e+000 2.975532e+000 6.190044e+001 -2.807040e-002 -1.531508e-002 1.310226e-001 1.417213e-003 -2.371345e-002 3.886223e-002 -6.228909e-002 -8.308486e-003 7.035650e-002 -5.286173e-002 -2.527280e-002 5.924186e-002 3.585004e-003 7.469244e-004 2.051655e-002 -2.929464e-002 5.537300e-003 -2.644804e-003 2.430879e-002 -1.050279e-002 1.900269e-002 -2.223574e-002 1.607009e-002 -8.220041e-004 -1.088212e-003 -4.160025e-002
<VARIANCE> 39
 1.414109e+002 7.789651e+001 6.197569e+001 6.992234e+001 4.177879e+001 7.751051e+001 7.294250e+001 5.857701e+001 5.932423e+001 3.918953e+001 4.556395e+001 2.385864e+001 5.976743e+001 4.754480e+000 3.241677e+000 3.421673e+000 2.671019e+000 2.885232e+000 3.508314e+000 3.456802e+000 3.164435e+000 3.567269e+000 2.605410e+000 2.406822e+000 1.519150e+000 2.927211e+000 5.413395e-001 4.753927e-001 4.577427e-001 4.318496e-001 4.531186e-001 5.021955e-001 5.172566e-001 5.079434e-001 5.961374e-001 4.583212e-001 3.928945e-001 2.688915e-001 3.375158e-001
<GCONST> 1.284624e+002
<STATE> 3
<MEAN> 39
 -8.638889e-002 -1.365616e+001 1.669010e+001 -3.958369e+000 2.676628e+000 -8.724324e+000 5.409346e+000 -9.797149e+000 2.297275e+000 -4.886314e+000 1.105563e+000 2.975532e+000 6.190044e+001 -2.807040e-002 -1.531508e-002 1.310226e-001 1.417213e-003 -2.371345e-002 3.886223e-002 -6.228909e-002 -8.308486e-003 7.035650e-002 -5.286173e-002 -2.527280e-002 5.924186e-002 3.585004e-003 7.469244e-004 2.051655e-002 -2.929464e-002 5.537300e-003 -2.644804e-003 2.430879e-002 -1.050279e-002 1.900269e-002 -2.223574e-002 1.607009e-002 -8.220041e-004 -1.088212e-003 -4.160025e-002
<VARIANCE> 39
 1.414109e+002 7.789651e+001 6.197569e+001 6.992234e+001 4.177879e+001 7.751051e+001 7.294250e+001 5.857701e+001 5.932423e+001 3.918953e+001 4.556395e+001 2.385864e+001 5.976743e+001 4.754480e+000 3.241677e+000 3.421673e+000 2.671019e+000 2.885232e+000 3.508314e+000 3.456802e+000 3.164435e+000 3.567269e+000 2.605410e+000 2.406822e+000 1.519150e+000 2.927211e+000 5.413395e-001 4.753927e-001 4.577427e-001 4.318496e-001 4.531186e-001 5.021955e-001 5.172566e-001 5.079434e-001 5.961374e-001 4.583212e-001 3.928945e-001 2.688915e-001 3.375158e-001
<GCONST> 1.284624e+002
<STATE> 4
<MEAN> 39
 -8.638889e-002 -1.365616e+001 1.669010e+001 -3.958369e+000 2.676628e+000 -8.724324e+000 5.409346e+000 -9.797149e+000 2.297275e+000 -4.886314e+000 1.105563e+000 2.975532e+000 6.190044e+001 -2.807040e-002 -1.531508e-002 1.310226e-001 1.417213e-003 -2.371345e-002 3.886223e-002 -6.228909e-002 -8.308486e-003 7.035650e-002 -5.286173e-002 -2.527280e-002 5.924186e-002 3.585004e-003 7.469244e-004 2.051655e-002 -2.929464e-002 5.537300e-003 -2.644804e-003 2.430879e-002 -1.050279e-002 1.900269e-002 -2.223574e-002 1.607009e-002 -8.220041e-004 -1.088212e-003 -4.160025e-002
<VARIANCE> 39
 1.414109e+002 7.789651e+001 6.197569e+001 6.992234e+001 4.177879e+001 7.751051e+001 7.294250e+001 5.857701e+001 5.932423e+001 3.918953e+001 4.556395e+001 2.385864e+001 5.976743e+001 4.754480e+000 3.241677e+000 3.421673e+000 2.671019e+000 2.885232e+000 3.508314e+000 3.456802e+000 3.164435e+000 3.567269e+000 2.605410e+000 2.406822e+000 1.519150e+000 2.927211e+000 5.413395e-001 4.753927e-001 4.577427e-001 4.318496e-001 4.531186e-001 5.021955e-001 5.172566e-001 5.079434e-001 5.961374e-001 4.583212e-001 3.928945e-001 2.688915e-001 3.375158e-001
<GCONST> 1.284624e+002
<TRANSP> 5
 0.000000e+000 1.000000e+000 0.000000e+000 0.000000e+000 0.000000e+000
 0.000000e+000 6.000000e-001 4.000000e-001 0.000000e+000 0.000000e+000
 0.000000e+000 0.000000e+000 6.000000e-001 4.000000e-001 0.000000e+000
 0.000000e+000 0.000000e+000 0.000000e+000 6.000000e-001 4.000000e-001
 0.000000e+000 0.000000e+000 0.000000e+000 0.000000e+000 0.000000e+000
<ENDHMM>

~o
<STREAMINFO> 1 39
<VECSIZE> 39<NULLD><MFCC_D_A_0><DIAGC>
~h "osiem"
<BEGINHMM>
<NUMSTATES> 5
<STATE> 2
<MEAN> 39
 -8.638889e-002 -1.365616e+001 1.669010e+001 -3.958369e+000 2.676628e+000 -8.724324e+000 5.409346e+000 -9.797149e+000 2.297275e+000 -4.886314e+000 1.105563e+000 2.975532e+000 6.190044e+001 -2.807040e-002 -1.531508e-002 1.310226e-001 1.417213e-003 -2.371345e-002 3.886223e-002 -6.228909e-002 -8.308486e-003 7.035650e-002 -5.286173e-002 -2.527280e-002 5.924186e-002 3.585004e-003 7.469244e-004 2.051655e-002 -2.929464e-002 5.537300e-003 -2.644804e-003 2.430879e-002 -1.050279e-002 1.900269e-002 -2.223574e-002 1.607009e-002 -8.220041e-004 -1.088212e-003 -4.160025e-002
<VARIANCE> 39
 1.414109e+002 7.789651e+001 6.197569e+001 6.992234e+001 4.177879e+001 7.751051e+001 7.294250e+001 5.857701e+001 5.932423e+001 3.918953e+001 4.556395e+001 2.385864e+001 5.976743e+001 4.754480e+000 3.241677e+000 3.421673e+000 2.671019e+000 2.885232e+000 3.508314e+000 3.456802e+000 3.164435e+000 3.567269e+000 2.605410e+000 2.406822e+000 1.519150e+000 2.927211e+000 5.413395e-001 4.753927e-001 4.577427e-001 4.318496e-001 4.531186e-001 5.021955e-001 5.172566e-001 5.079434e-001 5.961374e-001 4.583212e-001 3.928945e-001 2.688915e-001 3.375158e-001
<GCONST> 1.284624e+002
<STATE> 3
<MEAN> 39
 -8.638889e-002 -1.365616e+001 1.669010e+001 -3.958369e+000 2.676628e+000 -8.724324e+000 5.409346e+000 -9.797149e+000 2.297275e+000 -4.886314e+000 1.105563e+000 2.975532e+000 6.190044e+001 -2.807040e-002 -1.531508e-002 1.310226e-001 1.417213e-003 -2.371345e-002 3.886223e-002 -6.228909e-002 -8.308486e-003 7.035650e-002 -5.286173e-002 -2.527280e-002 5.924186e-002 3.585004e-003 7.469244e-004 2.051655e-002 -2.929464e-002 5.537300e-003 -2.644804e-003 2.430879e-002 -1.050279e-002 1.900269e-002 -2.223574e-002 1.607009e-002 -8.220041e-004 -1.088212e-003 -4.160025e-002
<VARIANCE> 39
 1.414109e+002 7.789651e+001 6.197569e+001 6.992234e+001 4.177879e+001 7.751051e+001 7.294250e+001 5.857701e+001 5.932423e+001 3.918953e+001 4.556395e+001 2.385864e+001 5.976743e+001 4.754480e+000 3.241677e+000 3.421673e+000 2.671019e+000 2.885232e+000 3.508314e+000 3.456802e+000 3.164435e+000 3.567269e+000 2.605410e+000 2.406822e+000 1.519150e+000 2.927211e+000 5.413395e-001 4.753927e-001 4.577427e-001 4.318496e-001 4.531186e-001 5.021955e-001 5.172566e-001 5.079434e-001 5.961374e-001 4.583212e-001 3.928945e-001 2.688915e-001 3.375158e-001
<GCONST> 1.284624e+002
<STATE> 4
<MEAN> 39
 -8.638889e-002 -1.365616e+001 1.669010e+001 -3.958369e+000 2.676628e+000 -8.724324e+000 5.409346e+000 -9.797149e+000 2.297275e+000 -4.886314e+000 1.105563e+000 2.975532e+000 6.190044e+001 -2.807040e-002 -1.531508e-002 1.310226e-001 1.417213e-003 -2.371345e-002 3.886223e-002 -6.228909e-002 -8.308486e-003 7.035650e-002 -5.286173e-002 -2.527280e-002 5.924186e-002 3.585004e-003 7.469244e-004 2.051655e-002 -2.929464e-002 5.537300e-003 -2.644804e-003 2.430879e-002 -1.050279e-002 1.900269e-002 -2.223574e-002 1.607009e-002 -8.220041e-004 -1.088212e-003 -4.160025e-002
<VARIANCE> 39
 1.414109e+002 7.789651e+001 6.197569e+001 6.992234e+001 4.177879e+001 7.751051e+001 7.294250e+001 5.857701e+001 5.932423e+001 3.918953e+001 4.556395e+001 2.385864e+001 5.976743e+001 4.754480e+000 3.241677e+000 3.421673e+000 2.671019e+000 2.885232e+000 3.508314e+000 3.456802e+000 3.164435e+000 3.567269e+000 2.605410e+000 2.406822e+000 1.519150e+000 2.927211e+000 5.413395e-001 4.753927e-001 4.577427e-001 4.318496e-001 4.531186e-001 5.021955e-001 5.172566e-001 5.079434e-001 5.961374e-001 4.583212e-001 3.928945e-001 2.688915e-001 3.375158e-001
<GCONST> 1.284624e+002
<TRANSP> 5
 0.000000e+000 1.000000e+000 0.000000e+000 0.000000e+000 0.000000e+000
 0.000000e+000 6.000000e-001 4.000000e-001 0.000000e+000 0.000000e+000
 0.000000e+000 0.000000e+000 6.000000e-001 4.000000e-001 0.000000e+000
 0.000000e+000 0.000000e+000 0.000000e+000 6.000000e-001 4.000000e-001
 0.000000e+000 0.000000e+000 0.000000e+000 0.000000e+000 0.000000e+000
<ENDHMM>

~o
<STREAMINFO> 1 39
<VECSIZE> 39<NULLD><MFCC_D_A_0><DIAGC>
~h "dziewiec"
<BEGINHMM>
<NUMSTATES> 5
<STATE> 2
<MEAN> 39
 -8.638889e-002 -1.365616e+001 1.669010e+001 -3.958369e+000 2.676628e+000 -8.724324e+000 5.409346e+000 -9.797149e+000 2.297275e+000 -4.886314e+000 1.105563e+000 2.975532e+000 6.190044e+001 -2.807040e-002 -1.531508e-002 1.310226e-001 1.417213e-003 -2.371345e-002 3.886223e-002 -6.228909e-002 -8.308486e-003 7.035650e-002 -5.286173e-002 -2.527280e-002 5.924186e-002 3.585004e-003 7.469244e-004 2.051655e-002 -2.929464e-002 5.537300e-003 -2.644804e-003 2.430879e-002 -1.050279e-002 1.900269e-002 -2.223574e-002 1.607009e-002 -8.220041e-004 -1.088212e-003 -4.160025e-002
<VARIANCE> 39
 1.414109e+002 7.789651e+001 6.197569e+001 6.992234e+001 4.177879e+001 7.751051e+001 7.294250e+001 5.857701e+001 5.932423e+001 3.918953e+001 4.556395e+001 2.385864e+001 5.976743e+001 4.754480e+000 3.241677e+000 3.421673e+000 2.671019e+000 2.885232e+000 3.508314e+000 3.456802e+000 3.164435e+000 3.567269e+000 2.605410e+000 2.406822e+000 1.519150e+000 2.927211e+000 5.413395e-001 4.753927e-001 4.577427e-001 4.318496e-001 4.531186e-001 5.021955e-001 5.172566e-001 5.079434e-001 5.961374e-001 4.583212e-001 3.928945e-001 2.688915e-001 3.375158e-001
<GCONST> 1.284624e+002
<STATE> 3
<MEAN> 39
 -8.638889e-002 -1.365616e+001 1.669010e+001 -3.958369e+000 2.676628e+000 -8.724324e+000 5.409346e+000 -9.797149e+000 2.297275e+000 -4.886314e+000 1.105563e+000 2.975532e+000 6.190044e+001 -2.807040e-002 -1.531508e-002 1.310226e-001 1.417213e-003 -2.371345e-002 3.886223e-002 -6.228909e-002 -8.308486e-003 7.035650e-002 -5.286173e-002 -2.527280e-002 5.924186e-002 3.585004e-003 7.469244e-004 2.051655e-002 -2.929464e-002 5.537300e-003 -2.644804e-003 2.430879e-002 -1.050279e-002 1.900269e-002 -2.223574e-002 1.607009e-002 -8.220041e-004 -1.088212e-003 -4.160025e-002
<VARIANCE> 39
 1.414109e+002 7.789651e+001 6.197569e+001 6.992234e+001 4.177879e+001 7.751051e+001 7.294250e+001 5.857701e+001 5.932423e+001 3.918953e+001 4.556395e+001 2.385864e+001 5.976743e+001 4.754480e+000 3.241677e+000 3.421673e+000 2.671019e+000 2.885232e+000 3.508314e+000 3.456802e+000 3.164435e+000 3.567269e+000 2.605410e+000 2.406822e+000 1.519150e+000 2.927211e+000 5.413395e-001 4.753927e-001 4.577427e-001 4.318496e-001 4.531186e-001 5.021955e-001 5.172566e-001 5.079434e-001 5.961374e-001 4.583212e-001 3.928945e-001 2.688915e-001 3.375158e-001
<GCONST> 1.284624e+002
<STATE> 4
<MEAN> 39
 -8.638889e-002 -1.365616e+001 1.669010e+001 -3.958369e+000 2.676628e+000 -8.724324e+000 5.409346e+000 -9.797149e+000 2.297275e+000 -4.886314e+000 1.105563e+000 2.975532e+000 6.190044e+001 -2.807040e-002 -1.531508e-002 1.310226e-001 1.417213e-003 -2.371345e-002 3.886223e-002 -6.228909e-002 -8.308486e-003 7.035650e-002 -5.286173e-002 -2.527280e-002 5.924186e-002 3.585004e-003 7.469244e-004 2.051655e-002 -2.929464e-002 5.537300e-003 -2.644804e-003 2.430879e-002 -1.050279e-002 1.900269e-002 -2.223574e-002 1.607009e-002 -8.220041e-004 -1.088212e-003 -4.160025e-002
<VARIANCE> 39
 1.414109e+002 7.789651e+001 6.197569e+001 6.992234e+001 4.177879e+001 7.751051e+001 7.294250e+001 5.857701e+001 5.932423e+001 3.918953e+001 4.556395e+001 2.385864e+001 5.976743e+001 4.754480e+000 3.241677e+000 3.421673e+000 2.671019e+000 2.885232e+000 3.508314e+000 3.456802e+000 3.164435e+000 3.567269e+000 2.605410e+000 2.406822e+000 1.519150e+000 2.927211e+000 5.413395e-001 4.753927e-001 4.577427e-001 4.318496e-001 4.531186e-001 5.021955e-001 5.172566e-001 5.079434e-001 5.961374e-001 4.583212e-001 3.928945e-001 2.688915e-001 3.375158e-001
<GCONST> 1.284624e+002
<TRANSP> 5
 0.000000e+000 1.000000e+000 0.000000e+000 0.000000e+000 0.000000e+000
 0.000000e+000 6.000000e-001 4.000000e-001 0.000000e+000 0.000000e+000
 0.000000e+000 0.000000e+000 6.000000e-001 4.000000e-001 0.000000e+000
 0.000000e+000 0.000000e+000 0.000000e+000 6.000000e-001 4.000000e-001
 0.000000e+000 0.000000e+000 0.000000e+000 0.000000e+000 0.000000e+000
<ENDHMM>

~o
<STREAMINFO> 1 39
<VECSIZE> 39<NULLD><MFCC_D_A_0><DIAGC>
~h "zero"
<BEGINHMM>
<NUMSTATES> 5
<STATE> 2
<MEAN> 39
 -8.638889e-002 -1.365616e+001 1.669010e+001 -3.958369e+000 2.676628e+000 -8.724324e+000 5.409346e+000 -9.797149e+000 2.297275e+000 -4.886314e+000 1.105563e+000 2.975532e+000 6.190044e+001 -2.807040e-002 -1.531508e-002 1.310226e-001 1.417213e-003 -2.371345e-002 3.886223e-002 -6.228909e-002 -8.308486e-003 7.035650e-002 -5.286173e-002 -2.527280e-002 5.924186e-002 3.585004e-003 7.469244e-004 2.051655e-002 -2.929464e-002 5.537300e-003 -2.644804e-003 2.430879e-002 -1.050279e-002 1.900269e-002 -2.223574e-002 1.607009e-002 -8.220041e-004 -1.088212e-003 -4.160025e-002
<VARIANCE> 39
 1.414109e+002 7.789651e+001 6.197569e+001 6.992234e+001 4.177879e+001 7.751051e+001 7.294250e+001 5.857701e+001 5.932423e+001 3.918953e+001 4.556395e+001 2.385864e+001 5.976743e+001 4.754480e+000 3.241677e+000 3.421673e+000 2.671019e+000 2.885232e+000 3.508314e+000 3.456802e+000 3.164435e+000 3.567269e+000 2.605410e+000 2.406822e+000 1.519150e+000 2.927211e+000 5.413395e-001 4.753927e-001 4.577427e-001 4.318496e-001 4.531186e-001 5.021955e-001 5.172566e-001 5.079434e-001 5.961374e-001 4.583212e-001 3.928945e-001 2.688915e-001 3.375158e-001
<GCONST> 1.284624e+002
<STATE> 3
<MEAN> 39
 -8.638889e-002 -1.365616e+001 1.669010e+001 -3.958369e+000 2.676628e+000 -8.724324e+000 5.409346e+000 -9.797149e+000 2.297275e+000 -4.886314e+000 1.105563e+000 2.975532e+000 6.190044e+001 -2.807040e-002 -1.531508e-002 1.310226e-001 1.417213e-003 -2.371345e-002 3.886223e-002 -6.228909e-002 -8.308486e-003 7.035650e-002 -5.286173e-002 -2.527280e-002 5.924186e-002 3.585004e-003 7.469244e-004 2.051655e-002 -2.929464e-002 5.537300e-003 -2.644804e-003 2.430879e-002 -1.050279e-002 1.900269e-002 -2.223574e-002 1.607009e-002 -8.220041e-004 -1.088212e-003 -4.160025e-002
<VARIANCE> 39
 1.414109e+002 7.789651e+001 6.197569e+001 6.992234e+001 4.177879e+001 7.751051e+001 7.294250e+001 5.857701e+001 5.932423e+001 3.918953e+001 4.556395e+001 2.385864e+001 5.976743e+001 4.754480e+000 3.241677e+000 3.421673e+000 2.671019e+000 2.885232e+000 3.508314e+000 3.456802e+000 3.164435e+000 3.567269e+000 2.605410e+000 2.406822e+000 1.519150e+000 2.927211e+000 5.413395e-001 4.753927e-001 4.577427e-001 4.318496e-001 4.531186e-001 5.021955e-001 5.172566e-001 5.079434e-001 5.961374e-001 4.583212e-001 3.928945e-001 2.688915e-001 3.375158e-001
<GCONST> 1.284624e+002
<STATE> 4
<MEAN> 39
 -8.638889e-002 -1.365616e+001 1.669010e+001 -3.958369e+000 2.676628e+000 -8.724324e+000 5.409346e+000 -9.797149e+000 2.297275e+000 -4.886314e+000 1.105563e+000 2.975532e+000 6.190044e+001 -2.807040e-002 -1.531508e-002 1.310226e-001 1.417213e-003 -2.371345e-002 3.886223e-002 -6.228909e-002 -8.308486e-003 7.035650e-002 -5.286173e-002 -2.527280e-002 5.924186e-002 3.585004e-003 7.469244e-004 2.051655e-002 -2.929464e-002 5.537300e-003 -2.644804e-003 2.430879e-002 -1.050279e-002 1.900269e-002 -2.223574e-002 1.607009e-002 -8.220041e-004 -1.088212e-003 -4.160025e-002
<VARIANCE> 39
 1.414109e+002 7.789651e+001 6.197569e+001 6.992234e+001 4.177879e+001 7.751051e+001 7.294250e+001 5.857701e+001 5.932423e+001 3.918953e+001 4.556395e+001 2.385864e+001 5.976743e+001 4.754480e+000 3.241677e+000 3.421673e+000 2.671019e+000 2.885232e+000 3.508314e+000 3.456802e+000 3.164435e+000 3.567269e+000 2.605410e+000 2.406822e+000 1.519150e+000 2.927211e+000 5.413395e-001 4.753927e-001 4.577427e-001 4.318496e-001 4.531186e-001 5.021955e-001 5.172566e-001 5.079434e-001 5.961374e-001 4.583212e-001 3.928945e-001 2.688915e-001 3.375158e-001
<GCONST> 1.284624e+002
<TRANSP> 5
 0.000000e+000 1.000000e+000 0.000000e+000 0.000000e+000 0.000000e+000
 0.000000e+000 6.000000e-001 4.000000e-001 0.000000e+000 0.000000e+000
 0.000000e+000 0.000000e+000 6.000000e-001 4.000000e-001 0.000000e+000
 0.000000e+000 0.000000e+000 0.000000e+000 6.000000e-001 4.000000e-001
 0.000000e+000 0.000000e+000 0.000000e+000 0.000000e+000 0.000000e+000
<ENDHMM>

